<?xml version="1.0"?>
<opencv_storage>
<cascade>
  <stageType>BOOST</stageType>
  <featureType>HAAR</featureType>
  <height>20</height>
  <width>20</width>
  <stageParams>
    <boostType>GAB</boostType>
    <minHitRate>9.9500000476837158e-01</minHitRate>
    <maxFalseAlarm>5.0000000000000000e-01</maxFalseAlarm>
    <weightTrimRate>9.4999999999999996e-01</weightTrimRate>
    <maxDepth>1</maxDepth>
    <maxWeakCount>100</maxWeakCount></stageParams>
  <featureParams>
    <maxCatCount>0</maxCatCount>
    <featSize>1</featSize>
    <mode>BASIC</mode></featureParams>
  <stageNum>8</stageNum>
  <stages>
    <!-- stage 0 -->
    <_>
      <maxWeakCount>2</maxWeakCount>
      <stageThreshold>6.1641253530979156e-02</stageThreshold>
      <weakClassifiers>
        <_>
          <internalNodes>
            0 -1 1 5.6170128285884857e-02</internalNodes>
          <leafValues>
            -6.4071857929229736e-01 9.2192190885543823e-01</leafValues></_>
        <_>
          <internalNodes>
            0 -1 16 -1.2930005788803101e-02</internalNodes>
          <leafValues>
            7.0235979557037354e-01 -9.8373490571975708e-01</leafValues></_></weakClassifiers></_>
    <!-- stage 1 -->
    <_>
      <maxWeakCount>2</maxWeakCount>
      <stageThreshold>5.8700037188827991e-03</stageThreshold>
      <weakClassifiers>
        <_>
          <internalNodes>
            0 -1 2 3.4068249166011810e-02</internalNodes>
          <leafValues>
            -7.8217822313308716e-01 9.1391676664352417e-01</leafValues></_>
        <_>
          <internalNodes>
            0 -1 17 7.8754173591732979e-04</internalNodes>
          <leafValues>
            -8.7957298755645752e-01 7.8804820775985718e-01</leafValues></_></weakClassifiers></_>
    <!-- stage 2 -->
    <_>
      <maxWeakCount>4</maxWeakCount>
      <stageThreshold>-1.3600126504898071e+00</stageThreshold>
      <weakClassifiers>
        <_>
          <internalNodes>
            0 -1 11 7.3194364085793495e-03</internalNodes>
          <leafValues>
            -7.9116463661193848e-01 7.9494005441665649e-01</leafValues></_>
        <_>
          <internalNodes>
            0 -1 20 -4.0236786007881165e-02</internalNodes>
          <leafValues>
            7.0324623584747314e-01 -7.4759626388549805e-01</leafValues></_>
        <_>
          <internalNodes>
            0 -1 6 -2.0474074408411980e-02</internalNodes>
          <leafValues>
            7.1970832347869873e-01 -7.1091425418853760e-01</leafValues></_>
        <_>
          <internalNodes>
            0 -1 21 3.3412168268114328e-03</internalNodes>
          <leafValues>
            -6.9644224643707275e-01 6.1374413967132568e-01</leafValues></_></weakClassifiers></_>
    <!-- stage 3 -->
    <_>
      <maxWeakCount>2</maxWeakCount>
      <stageThreshold>3.1088987365365028e-02</stageThreshold>
      <weakClassifiers>
        <_>
          <internalNodes>
            0 -1 2 6.0076288878917694e-02</internalNodes>
          <leafValues>
            -6.0260587930679321e-01 8.4415584802627563e-01</leafValues></_>
        <_>
          <internalNodes>
            0 -1 10 -2.7049663476645947e-03</internalNodes>
          <leafValues>
            6.3369482755661011e-01 -7.9822659492492676e-01</leafValues></_></weakClassifiers></_>
    <!-- stage 4 -->
    <_>
      <maxWeakCount>4</maxWeakCount>
      <stageThreshold>-1.1025024205446243e-01</stageThreshold>
      <weakClassifiers>
        <_>
          <internalNodes>
            0 -1 18 1.1529213748872280e-02</internalNodes>
          <leafValues>
            -7.3839664459228516e-01 7.5360417366027832e-01</leafValues></_>
        <_>
          <internalNodes>
            0 -1 7 9.5010958611965179e-02</internalNodes>
          <leafValues>
            -5.3783184289932251e-01 7.8955316543579102e-01</leafValues></_>
        <_>
          <internalNodes>
            0 -1 13 -3.3498075790703297e-03</internalNodes>
          <leafValues>
            -9.1444212198257446e-01 5.2912819385528564e-01</leafValues></_>
        <_>
          <internalNodes>
            0 -1 22 2.5804126635193825e-03</internalNodes>
          <leafValues>
            -6.7912942171096802e-01 6.3685005903244019e-01</leafValues></_></weakClassifiers></_>
    <!-- stage 5 -->
    <_>
      <maxWeakCount>6</maxWeakCount>
      <stageThreshold>-5.7853043079376221e-01</stageThreshold>
      <weakClassifiers>
        <_>
          <internalNodes>
            0 -1 0 8.1089064478874207e-02</internalNodes>
          <leafValues>
            -7.1074378490447998e-01 7.5461739301681519e-01</leafValues></_>
        <_>
          <internalNodes>
            0 -1 12 -5.3586378693580627e-02</internalNodes>
          <leafValues>
            7.8180968761444092e-01 -5.9668779373168945e-01</leafValues></_>
        <_>
          <internalNodes>
            0 -1 9 1.1558460537344217e-03</internalNodes>
          <leafValues>
            5.0910174846649170e-01 -9.3354278802871704e-01</leafValues></_>
        <_>
          <internalNodes>
            0 -1 14 3.3960167318582535e-02</internalNodes>
          <leafValues>
            -5.4949098825454712e-01 6.8171644210815430e-01</leafValues></_>
        <_>
          <internalNodes>
            0 -1 15 1.6642921837046742e-03</internalNodes>
          <leafValues>
            -8.6660367250442505e-01 4.1805937886238098e-01</leafValues></_>
        <_>
          <internalNodes>
            0 -1 4 6.5845350036397576e-04</internalNodes>
          <leafValues>
            -8.1981343030929565e-01 3.5123109817504883e-01</leafValues></_></weakClassifiers></_>
    <!-- stage 6 -->
    <_>
      <maxWeakCount>1</maxWeakCount>
      <stageThreshold>6.4664310216903687e-01</stageThreshold>
      <weakClassifiers>
        <_>
          <internalNodes>
            0 -1 3 -8.0276653170585632e-04</internalNodes>
          <leafValues>
            -9.8675495386123657e-01 6.4664310216903687e-01</leafValues></_></weakClassifiers></_>
    <!-- stage 7 -->
    <_>
      <maxWeakCount>3</maxWeakCount>
      <stageThreshold>2.0787349343299866e-01</stageThreshold>
      <weakClassifiers>
        <_>
          <internalNodes>
            0 -1 8 5.6093176826834679e-03</internalNodes>
          <leafValues>
            7.4144488573074341e-01 -8.7677723169326782e-01</leafValues></_>
        <_>
          <internalNodes>
            0 -1 5 1.8114609410986304e-03</internalNodes>
          <leafValues>
            5.4035979509353638e-01 -8.7099868059158325e-01</leafValues></_>
        <_>
          <internalNodes>
            0 -1 19 7.6231420971453190e-03</internalNodes>
          <leafValues>
            -8.5195076465606689e-01 5.4429095983505249e-01</leafValues></_></weakClassifiers></_></stages>
  <features>
    <_>
      <rects>
        <_>
          0 3 18 9 -1.</_>
        <_>
          6 3 6 9 3.</_></rects>
      <tilted>0</tilted></_>
    <_>
      <rects>
        <_>
          0 5 6 11 -1.</_>
        <_>
          3 5 3 11 2.</_></rects>
      <tilted>0</tilted></_>
    <_>
      <rects>
        <_>
          0 6 6 9 -1.</_>
        <_>
          3 6 3 9 2.</_></rects>
      <tilted>0</tilted></_>
    <_>
      <rects>
        <_>
          2 8 10 5 -1.</_>
        <_>
          7 8 5 5 2.</_></rects>
      <tilted>0</tilted></_>
    <_>
      <rects>
        <_>
          2 9 3 2 -1.</_>
        <_>
          3 9 1 2 3.</_></rects>
      <tilted>0</tilted></_>
    <_>
      <rects>
        <_>
          3 9 6 4 -1.</_>
        <_>
          6 9 3 4 2.</_></rects>
      <tilted>0</tilted></_>
    <_>
      <rects>
        <_>
          3 16 12 4 -1.</_>
        <_>
          3 18 12 2 2.</_></rects>
      <tilted>0</tilted></_>
    <_>
      <rects>
        <_>
          4 0 12 6 -1.</_>
        <_>
          4 3 12 3 2.</_></rects>
      <tilted>0</tilted></_>
    <_>
      <rects>
        <_>
          4 6 8 8 -1.</_>
        <_>
          8 6 4 8 2.</_></rects>
      <tilted>0</tilted></_>
    <_>
      <rects>
        <_>
          4 7 9 8 -1.</_>
        <_>
          7 7 3 8 3.</_></rects>
      <tilted>0</tilted></_>
    <_>
      <rects>
        <_>
          5 4 6 4 -1.</_>
        <_>
          5 4 3 2 2.</_>
        <_>
          8 6 3 2 2.</_></rects>
      <tilted>0</tilted></_>
    <_>
      <rects>
        <_>
          6 1 2 9 -1.</_>
        <_>
          6 4 2 3 3.</_></rects>
      <tilted>0</tilted></_>
    <_>
      <rects>
        <_>
          6 14 12 6 -1.</_>
        <_>
          6 17 12 3 2.</_></rects>
      <tilted>0</tilted></_>
    <_>
      <rects>
        <_>
          7 7 2 8 -1.</_>
        <_>
          7 11 2 4 2.</_></rects>
      <tilted>0</tilted></_>
    <_>
      <rects>
        <_>
          8 1 5 6 -1.</_>
        <_>
          8 3 5 2 3.</_></rects>
      <tilted>0</tilted></_>
    <_>
      <rects>
        <_>
          9 8 3 6 -1.</_>
        <_>
          9 10 3 2 3.</_></rects>
      <tilted>0</tilted></_>
    <_>
      <rects>
        <_>
          10 5 5 12 -1.</_>
        <_>
          10 11 5 6 2.</_></rects>
      <tilted>0</tilted></_>
    <_>
      <rects>
        <_>
          10 6 1 6 -1.</_>
        <_>
          10 9 1 3 2.</_></rects>
      <tilted>0</tilted></_>
    <_>
      <rects>
        <_>
          11 6 9 3 -1.</_>
        <_>
          14 6 3 3 3.</_></rects>
      <tilted>0</tilted></_>
    <_>
      <rects>
        <_>
          11 12 9 3 -1.</_>
        <_>
          14 12 3 3 3.</_></rects>
      <tilted>0</tilted></_>
    <_>
      <rects>
        <_>
          14 3 6 16 -1.</_>
        <_>
          17 3 3 16 2.</_></rects>
      <tilted>0</tilted></_>
    <_>
      <rects>
        <_>
          14 10 2 9 -1.</_>
        <_>
          14 13 2 3 3.</_></rects>
      <tilted>0</tilted></_>
    <_>
      <rects>
        <_>
          16 9 3 3 -1.</_>
        <_>
          17 9 1 3 3.</_></rects>
      <tilted>0</tilted></_></features></cascade>
</opencv_storage>
