<?xml version="1.0"?>
<opencv_storage>
<cascade>
  <stageType>BOOST</stageType>
  <featureType>HAAR</featureType>
  <height>50</height>
  <width>50</width>
  <stageParams>
    <boostType>GAB</boostType>
    <minHitRate>9.9500000476837158e-01</minHitRate>
    <maxFalseAlarm>5.0000000000000000e-01</maxFalseAlarm>
    <weightTrimRate>9.4999999999999996e-01</weightTrimRate>
    <maxDepth>1</maxDepth>
    <maxWeakCount>100</maxWeakCount></stageParams>
  <featureParams>
    <maxCatCount>0</maxCatCount>
    <featSize>1</featSize>
    <mode>BASIC</mode></featureParams>
  <stageNum>3</stageNum>
  <stages>
    <!-- stage 0 -->
    <_>
      <maxWeakCount>6</maxWeakCount>
      <stageThreshold>-3.5552656650543213e-01</stageThreshold>
      <weakClassifiers>
        <_>
          <internalNodes>
            0 -1 10 -2.4918545968830585e-03</internalNodes>
          <leafValues>
            6.7119902372360229e-01 -6.6355139017105103e-01</leafValues></_>
        <_>
          <internalNodes>
            0 -1 3 -4.0718102827668190e-03</internalNodes>
          <leafValues>
            5.6732201576232910e-01 -4.7395795583724976e-01</leafValues></_>
        <_>
          <internalNodes>
            0 -1 9 -2.4407933233305812e-04</internalNodes>
          <leafValues>
            -8.5331374406814575e-01 3.0891638994216919e-01</leafValues></_>
        <_>
          <internalNodes>
            0 -1 13 -3.8410577690228820e-04</internalNodes>
          <leafValues>
            -8.7728548049926758e-01 2.5819519162178040e-01</leafValues></_>
        <_>
          <internalNodes>
            0 -1 0 -1.3877094723284245e-02</internalNodes>
          <leafValues>
            6.8945604562759399e-01 -4.0942481160163879e-01</leafValues></_>
        <_>
          <internalNodes>
            0 -1 1 7.5851259753108025e-03</internalNodes>
          <leafValues>
            -3.8263094425201416e-01 6.6089582443237305e-01</leafValues></_></weakClassifiers></_>
    <!-- stage 1 -->
    <_>
      <maxWeakCount>5</maxWeakCount>
      <stageThreshold>-1.0109084844589233e+00</stageThreshold>
      <weakClassifiers>
        <_>
          <internalNodes>
            0 -1 12 -5.3112173918634653e-04</internalNodes>
          <leafValues>
            7.0170456171035767e-01 -3.8497653603553772e-01</leafValues></_>
        <_>
          <internalNodes>
            0 -1 8 -1.6017374582588673e-04</internalNodes>
          <leafValues>
            -8.5969966650009155e-01 3.6089959740638733e-01</leafValues></_>
        <_>
          <internalNodes>
            0 -1 14 -2.1581826149486005e-04</internalNodes>
          <leafValues>
            -8.7221431732177734e-01 2.2396412491798401e-01</leafValues></_>
        <_>
          <internalNodes>
            0 -1 5 -6.4774295315146446e-03</internalNodes>
          <leafValues>
            6.3077098131179810e-01 -3.5265532135963440e-01</leafValues></_>
        <_>
          <internalNodes>
            0 -1 15 1.1473431368358433e-04</internalNodes>
          <leafValues>
            2.3803810775279999e-01 -8.9672040939331055e-01</leafValues></_></weakClassifiers></_>
    <!-- stage 2 -->
    <_>
      <maxWeakCount>7</maxWeakCount>
      <stageThreshold>-1.2167763710021973e+00</stageThreshold>
      <weakClassifiers>
        <_>
          <internalNodes>
            0 -1 11 -1.0919137857854366e-03</internalNodes>
          <leafValues>
            6.1209070682525635e-01 -4.6428570151329041e-01</leafValues></_>
        <_>
          <internalNodes>
            0 -1 4 -1.8425845773890615e-03</internalNodes>
          <leafValues>
            5.5903422832489014e-01 -3.9008972048759460e-01</leafValues></_>
        <_>
          <internalNodes>
            0 -1 17 3.0194499995559454e-03</internalNodes>
          <leafValues>
            -3.5541182756423950e-01 6.3646799325942993e-01</leafValues></_>
        <_>
          <internalNodes>
            0 -1 16 -9.8169031844008714e-05</internalNodes>
          <leafValues>
            -8.9254236221313477e-01 2.5875708460807800e-01</leafValues></_>
        <_>
          <internalNodes>
            0 -1 6 -7.8634353121742606e-04</internalNodes>
          <leafValues>
            4.6873429417610168e-01 -4.5973634719848633e-01</leafValues></_>
        <_>
          <internalNodes>
            0 -1 7 1.5295601915568113e-03</internalNodes>
          <leafValues>
            -4.5809939503669739e-01 4.9698740243911743e-01</leafValues></_>
        <_>
          <internalNodes>
            0 -1 2 -1.2402932625263929e-03</internalNodes>
          <leafValues>
            5.8760416507720947e-01 -4.2428693175315857e-01</leafValues></_></weakClassifiers></_></stages>
  <features>
    <_>
      <rects>
        <_>
          1 3 18 14 -1.</_>
        <_>
          1 3 9 7 2.</_>
        <_>
          10 10 9 7 2.</_></rects>
      <tilted>0</tilted></_>
    <_>
      <rects>
        <_>
          1 20 9 15 -1.</_>
        <_>
          4 20 3 15 3.</_></rects>
      <tilted>0</tilted></_>
    <_>
      <rects>
        <_>
          5 34 8 3 -1.</_>
        <_>
          9 34 4 3 2.</_></rects>
      <tilted>0</tilted></_>
    <_>
      <rects>
        <_>
          6 8 39 3 -1.</_>
        <_>
          19 8 13 3 3.</_></rects>
      <tilted>0</tilted></_>
    <_>
      <rects>
        <_>
          10 9 6 8 -1.</_>
        <_>
          13 9 3 8 2.</_></rects>
      <tilted>0</tilted></_>
    <_>
      <rects>
        <_>
          12 7 23 4 -1.</_>
        <_>
          12 9 23 2 2.</_></rects>
      <tilted>0</tilted></_>
    <_>
      <rects>
        <_>
          15 21 12 2 -1.</_>
        <_>
          21 21 6 2 2.</_></rects>
      <tilted>0</tilted></_>
    <_>
      <rects>
        <_>
          18 10 4 8 -1.</_>
        <_>
          18 14 4 4 2.</_></rects>
      <tilted>0</tilted></_>
    <_>
      <rects>
        <_>
          21 14 12 3 -1.</_>
        <_>
          21 15 12 1 3.</_></rects>
      <tilted>0</tilted></_>
    <_>
      <rects>
        <_>
          21 15 12 3 -1.</_>
        <_>
          21 16 12 1 3.</_></rects>
      <tilted>0</tilted></_>
    <_>
      <rects>
        <_>
          24 15 16 4 -1.</_>
        <_>
          32 15 8 4 2.</_></rects>
      <tilted>0</tilted></_>
    <_>
      <rects>
        <_>
          29 20 8 3 -1.</_>
        <_>
          33 20 4 3 2.</_></rects>
      <tilted>0</tilted></_>
    <_>
      <rects>
        <_>
          29 22 8 1 -1.</_>
        <_>
          33 22 4 1 2.</_></rects>
      <tilted>0</tilted></_>
    <_>
      <rects>
        <_>
          30 19 7 4 -1.</_>
        <_>
          30 21 7 2 2.</_></rects>
      <tilted>0</tilted></_>
    <_>
      <rects>
        <_>
          32 15 2 4 -1.</_>
        <_>
          32 17 2 2 2.</_></rects>
      <tilted>0</tilted></_>
    <_>
      <rects>
        <_>
          33 15 1 6 -1.</_>
        <_>
          33 17 1 2 3.</_></rects>
      <tilted>0</tilted></_>
    <_>
      <rects>
        <_>
          33 17 3 2 -1.</_>
        <_>
          33 18 3 1 2.</_></rects>
      <tilted>0</tilted></_>
    <_>
      <rects>
        <_>
          42 15 4 14 -1.</_>
        <_>
          44 15 2 14 2.</_></rects>
      <tilted>0</tilted></_></features></cascade>
</opencv_storage>
